array([[    -1166,      -460,      -765,      -318,       215,      1479,       -88, 1, -13321183,         2,       399,         1,   4509400,       119,       399,       121],
       [     1682,      -189,       480,       542,       251,     -2233,      -456, 1,  -6850080,        95,       399,         1,  20052820,         1,       399,        96],
       [    -1239,      -363,      -634,       -95,      -166,       511,       997, 1,  -8390224,         1,       399,         1,   4070421,        98,       399,        99],
       [    -1440,      -468,      -765,      -322,       226,      1479,       -94, 1, -14135809,         2,       399,         1,   5044394,       109,       399,       111],
       [     1095,       324,      1443,       299,      1397,     -1378,     -1418, 1,  -9419320,        46,       399,         0,  13149453,         4,       401,        50],
       [     1312,     -1281,        97,       284,      1479,     -1370,     -1354, 1, -10183401,        28,       399,         0,  10004582,        39,       401,        67],
       [      905,     -1072,       515,      2016,      1686,      -281,      -298, 1, -12109302,         9,       399,         0,   8794276,        55,       401,        64],
       [     2956,       239,       545,      1007,      1941,     -1529,      -322, 1, -12147344,        61,       399,         0,  17130401,        13,       401,        74],
       [     1138,       811,       494,       -61,      -792,      -867,       401, 1,  -5068638,        75,       399,         1,  14567113,         1,       399,        76],
       [      818,       384,       754,      -189,      -315,      -873,      -454, 1,  -3198842,       113,       399,         1,   6227878,         8,       399,       121]])

array([[    -3046,      3032,       278,     -1127,       681,     -2255,     -2593, 0, -17902308,        45,       401,         0,  22179200,        29,       401,        74],
       [     1156,     -1308,       -73,      1300,       465,      1177,      1734, 0, -12536683,        17,       401,         0,   8287236,        57,       401,        74],
       [     2760,      -357,      -172,       124,       160,      1523,      1274, 0, -15120382,        18,       401,         0,  11480132,        41,       401,        59],
       [    -1207,      1195,       221,       205,       460,      -903,     -1528, 0,  -7192443,        49,       401,         0,   9289197,        37,       401,        86],
       [    -1153,      1277,       259,       269,       406,      -899,     -1528, 0,  -6962888,        54,       401,         0,   9118781,        38,       401,        92],
       [     -892,      2023,       441,       793,       849,        42,     -1551, 0,  -9863642,        26,       401,         0,   8303918,        41,       401,        67],
       [     1104,     -1537,        81,       284,      1479,     -1306,      -778, 1, -11181359,         5,       278,         0,   9355484,        44,       401,        49],
       [    -1429,       844,      -446,       390,       572,      -410,      -848, 0,  -7583716,        28,       401,         0,   6617946,        29,       401,        57],
       [    -1359,       670,       577,       658,       428,      -236,     -2323, 0, -10467522,        27,       401,         0,  11051583,        33,       401,        60],
       [    -2033,      1187,      -184,      1250,       563,     -1046,     -1455, 0,  -9484023,        44,       401,         0,  10947726,        31,       401,        75]])	   
	   
array([[   -1913,      197,      568,     -697,     -450,      187,     -362,        0, -9825994,       10,      309,        0, 10409286,        3,      309,       13],
       [    1166,       74,      -56,     -278,      616,     -198,     -344,        1, -4667186,       19,      278,        0,  7393282,        2,      309,       21],
       [    -146,      -60,      161,     1456,      577,     1085,     -349,        0, -7543479,        2,      309,        0,  4117429,       25,      309,       27],
       [    -150,      -66,      156,     1450,      584,      177,     -349,        0, -5323584,        5,      309,        0,  3734818,       35,      309,       40],
       [     430,     -792,     -455,     1362,     1033,     -346,     -187,        0, -7708359,        2,      309,        0,  5673004,       47,      309,       49],
       [     412,     -314,      276,     1337,      857,       24,      -84,        1, -6399944,        1,      278,        0,  4185573,       51,      309,       52],
       [      44,     -373,     -807,     1491,      661,     -895,     -284,        0, -6325030,       10,      309,        0,  6075570,       44,      309,       54],
       [   -1242,     -166,    -1006,      364,    -1217,     -217,     2594,        0, -8344623,       20,      309,        1,  8747806,       38,      278,       58],
       [       0,        0,        0,        0,        0,        0,        0,        0,        0,        0,        0,        0,        0,        0,        0,        0],
       [       0,        0,        0,        0,        0,        0,        0,        0,        0,        0,        0,        0,        0,        0,        0,        0]])	

array([[      228,       692,       340,     -1659,      -528,        82,       -82,         0,  -4601265,        50,       289,         0,   5742774,        10,       289,        60],
       [    -1913,      -989,       568,      -681,      -435,       203,      -378,         0, -10072118,         9,       289,         0,   9749225,         6,       289,        15],
       [     -968,     -1150,      1890,       452,      1106,      -261,      -145,         0, -11135927,        12,       289,         0,  13130044,         8,       289,        20],
       [      142,      1135,        -2,       342,       762,       569,       597,         1,  -6187363,        23,       240,         1,   7597641,         1,       240,        24],
       [     -946,      -735,       581,       689,      1390,       363,      -963,         0,  -9447949,         9,       289,         0,   7212282,        17,       289,        26],
       [      237,       588,       613,      -518,      -799,       847,       107,         0,  -5450919,        21,       289,         0,   4655895,        10,       289,        31],
       [      415,      -302,       273,      1345,       849,      -113,      -314,         1,  -6235079,         1,       240,         0,   4893083,        32,       289,        33],
       [     -903,      -294,      -302,      1595,       167,        32,      -314,         0,  -4107793,        31,       289,         0,   7168214,         2,       289,        33],
       [      602,      -908,       611,      1796,      1436,       525,      -249,         1, -10884008,         1,       240,         0,   6098825,        47,       289,        48],
       [      705,       -64,       154,      1448,       581,       176,       372,         0,  -6223799,         3,       289,         0,   4730067,        38,       289,        41]])	   